digraph Tree {
node [shape=box, style="filled, rounded", color="black", fontname=helvetica] ;
edge [fontname=helvetica] ;
0 [label=<X<SUB>1</SUB> &le; 4.358<br/>entropy = 1.0<br/>samples = 600<br/>value = [295, 305]>, fillcolor="#399de508"] ;
1 [label=<X<SUB>0</SUB> &le; 4.315<br/>entropy = 0.987<br/>samples = 539<br/>value = [234, 305]>, fillcolor="#399de53b"] ;
0 -> 1 [labeldistance=2.5, labelangle=45, headlabel="True"] ;
2 [label=<X<SUB>1</SUB> &le; 1.686<br/>entropy = 0.96<br/>samples = 494<br/>value = [189, 305]>, fillcolor="#399de561"] ;
1 -> 2 ;
3 [label=<X<SUB>1</SUB> &le; -1.516<br/>entropy = 0.942<br/>samples = 203<br/>value = [130, 73]>, fillcolor="#e5813970"] ;
2 -> 3 ;
4 [label=<entropy = 0.0<br/>samples = 20<br/>value = [0, 20]>, fillcolor="#399de5ff"] ;
3 -> 4 ;
5 [label=<X<SUB>0</SUB> &le; -1.598<br/>entropy = 0.868<br/>samples = 183<br/>value = [130, 53]>, fillcolor="#e5813997"] ;
3 -> 5 ;
6 [label=<entropy = 0.0<br/>samples = 14<br/>value = [0, 14]>, fillcolor="#399de5ff"] ;
5 -> 6 ;
7 [label=<X<SUB>0</SUB> &le; 0.909<br/>entropy = 0.779<br/>samples = 169<br/>value = [130, 39]>, fillcolor="#e58139b3"] ;
5 -> 7 ;
8 [label=<X<SUB>1</SUB> &le; 1.559<br/>entropy = 0.331<br/>samples = 82<br/>value = [77, 5]>, fillcolor="#e58139ee"] ;
7 -> 8 ;
9 [label=<X<SUB>1</SUB> &le; -1.227<br/>entropy = 0.172<br/>samples = 78<br/>value = [76, 2]>, fillcolor="#e58139f8"] ;
8 -> 9 ;
10 [label=<X<SUB>0</SUB> &le; -0.83<br/>entropy = 0.971<br/>samples = 5<br/>value = [3, 2]>, fillcolor="#e5813955"] ;
9 -> 10 ;
11 [label=<entropy = 0.0<br/>samples = 2<br/>value = [0, 2]>, fillcolor="#399de5ff"] ;
10 -> 11 ;
12 [label=<entropy = 0.0<br/>samples = 3<br/>value = [3, 0]>, fillcolor="#e58139ff"] ;
10 -> 12 ;
13 [label=<entropy = 0.0<br/>samples = 73<br/>value = [73, 0]>, fillcolor="#e58139ff"] ;
9 -> 13 ;
14 [label=<X<SUB>0</SUB> &le; 0.619<br/>entropy = 0.811<br/>samples = 4<br/>value = [1, 3]>, fillcolor="#399de5aa"] ;
8 -> 14 ;
15 [label=<X<SUB>0</SUB> &le; -0.469<br/>entropy = 1.0<br/>samples = 2<br/>value = [1, 1]>, fillcolor="#e5813900"] ;
14 -> 15 ;
16 [label=<entropy = 0.0<br/>samples = 1<br/>value = [0, 1]>, fillcolor="#399de5ff"] ;
15 -> 16 ;
17 [label=<entropy = 0.0<br/>samples = 1<br/>value = [1, 0]>, fillcolor="#e58139ff"] ;
15 -> 17 ;
18 [label=<entropy = 0.0<br/>samples = 2<br/>value = [0, 2]>, fillcolor="#399de5ff"] ;
14 -> 18 ;
19 [label=<X<SUB>0</SUB> &le; 2.597<br/>entropy = 0.965<br/>samples = 87<br/>value = [53, 34]>, fillcolor="#e581395b"] ;
7 -> 19 ;
20 [label=<X<SUB>0</SUB> &le; 1.452<br/>entropy = 0.966<br/>samples = 46<br/>value = [18, 28]>, fillcolor="#399de55b"] ;
19 -> 20 ;
21 [label=<X<SUB>1</SUB> &le; 1.203<br/>entropy = 0.918<br/>samples = 18<br/>value = [12, 6]>, fillcolor="#e581397f"] ;
20 -> 21 ;
22 [label=<X<SUB>1</SUB> &le; -1.185<br/>entropy = 0.619<br/>samples = 13<br/>value = [11, 2]>, fillcolor="#e58139d1"] ;
21 -> 22 ;
23 [label=<entropy = 0.0<br/>samples = 1<br/>value = [0, 1]>, fillcolor="#399de5ff"] ;
22 -> 23 ;
24 [label=<entropy = 0.414<br/>samples = 12<br/>value = [11, 1]>, fillcolor="#e58139e8"] ;
22 -> 24 ;
25 [label=<X<SUB>0</SUB> &le; 1.431<br/>entropy = 0.722<br/>samples = 5<br/>value = [1, 4]>, fillcolor="#399de5bf"] ;
21 -> 25 ;
26 [label=<entropy = 0.0<br/>samples = 4<br/>value = [0, 4]>, fillcolor="#399de5ff"] ;
25 -> 26 ;
27 [label=<entropy = 0.0<br/>samples = 1<br/>value = [1, 0]>, fillcolor="#e58139ff"] ;
25 -> 27 ;
28 [label=<X<SUB>1</SUB> &le; 1.132<br/>entropy = 0.75<br/>samples = 28<br/>value = [6, 22]>, fillcolor="#399de5b9"] ;
20 -> 28 ;
29 [label=<X<SUB>0</SUB> &le; 1.981<br/>entropy = 0.426<br/>samples = 23<br/>value = [2, 21]>, fillcolor="#399de5e7"] ;
28 -> 29 ;
30 [label=<entropy = 0.684<br/>samples = 11<br/>value = [2, 9]>, fillcolor="#399de5c6"] ;
29 -> 30 ;
31 [label=<entropy = 0.0<br/>samples = 12<br/>value = [0, 12]>, fillcolor="#399de5ff"] ;
29 -> 31 ;
32 [label=<X<SUB>0</SUB> &le; 1.766<br/>entropy = 0.722<br/>samples = 5<br/>value = [4, 1]>, fillcolor="#e58139bf"] ;
28 -> 32 ;
33 [label=<entropy = 0.0<br/>samples = 1<br/>value = [0, 1]>, fillcolor="#399de5ff"] ;
32 -> 33 ;
34 [label=<entropy = 0.0<br/>samples = 4<br/>value = [4, 0]>, fillcolor="#e58139ff"] ;
32 -> 34 ;
35 [label=<X<SUB>1</SUB> &le; 0.128<br/>entropy = 0.601<br/>samples = 41<br/>value = [35, 6]>, fillcolor="#e58139d3"] ;
19 -> 35 ;
36 [label=<X<SUB>0</SUB> &le; 2.888<br/>entropy = 0.985<br/>samples = 7<br/>value = [4, 3]>, fillcolor="#e5813940"] ;
35 -> 36 ;
37 [label=<entropy = 0.0<br/>samples = 2<br/>value = [2, 0]>, fillcolor="#e58139ff"] ;
36 -> 37 ;
38 [label=<X<SUB>0</SUB> &le; 3.098<br/>entropy = 0.971<br/>samples = 5<br/>value = [2, 3]>, fillcolor="#399de555"] ;
36 -> 38 ;
39 [label=<entropy = 0.0<br/>samples = 2<br/>value = [0, 2]>, fillcolor="#399de5ff"] ;
38 -> 39 ;
40 [label=<entropy = 0.918<br/>samples = 3<br/>value = [2, 1]>, fillcolor="#e581397f"] ;
38 -> 40 ;
41 [label=<X<SUB>0</SUB> &le; 4.173<br/>entropy = 0.431<br/>samples = 34<br/>value = [31, 3]>, fillcolor="#e58139e6"] ;
35 -> 41 ;
42 [label=<X<SUB>0</SUB> &le; 3.076<br/>entropy = 0.33<br/>samples = 33<br/>value = [31, 2]>, fillcolor="#e58139ef"] ;
41 -> 42 ;
43 [label=<entropy = 0.764<br/>samples = 9<br/>value = [7, 2]>, fillcolor="#e58139b6"] ;
42 -> 43 ;
44 [label=<entropy = 0.0<br/>samples = 24<br/>value = [24, 0]>, fillcolor="#e58139ff"] ;
42 -> 44 ;
45 [label=<entropy = 0.0<br/>samples = 1<br/>value = [0, 1]>, fillcolor="#399de5ff"] ;
41 -> 45 ;
46 [label=<X<SUB>0</SUB> &le; 1.992<br/>entropy = 0.727<br/>samples = 291<br/>value = [59, 232]>, fillcolor="#399de5be"] ;
2 -> 46 ;
47 [label=<X<SUB>1</SUB> &le; 3.1<br/>entropy = 0.996<br/>samples = 82<br/>value = [44, 38]>, fillcolor="#e5813923"] ;
46 -> 47 ;
48 [label=<X<SUB>0</SUB> &le; 0.767<br/>entropy = 0.947<br/>samples = 52<br/>value = [19, 33]>, fillcolor="#399de56c"] ;
47 -> 48 ;
49 [label=<X<SUB>0</SUB> &le; -0.293<br/>entropy = 0.439<br/>samples = 22<br/>value = [2, 20]>, fillcolor="#399de5e6"] ;
48 -> 49 ;
50 [label=<entropy = 0.0<br/>samples = 12<br/>value = [0, 12]>, fillcolor="#399de5ff"] ;
49 -> 50 ;
51 [label=<X<SUB>0</SUB> &le; -0.156<br/>entropy = 0.722<br/>samples = 10<br/>value = [2, 8]>, fillcolor="#399de5bf"] ;
49 -> 51 ;
52 [label=<entropy = 0.0<br/>samples = 1<br/>value = [1, 0]>, fillcolor="#e58139ff"] ;
51 -> 52 ;
53 [label=<X<SUB>1</SUB> &le; 2.201<br/>entropy = 0.503<br/>samples = 9<br/>value = [1, 8]>, fillcolor="#399de5df"] ;
51 -> 53 ;
54 [label=<X<SUB>1</SUB> &le; 1.906<br/>entropy = 0.811<br/>samples = 4<br/>value = [1, 3]>, fillcolor="#399de5aa"] ;
53 -> 54 ;
55 [label=<entropy = 0.0<br/>samples = 3<br/>value = [0, 3]>, fillcolor="#399de5ff"] ;
54 -> 55 ;
56 [label=<entropy = 0.0<br/>samples = 1<br/>value = [1, 0]>, fillcolor="#e58139ff"] ;
54 -> 56 ;
57 [label=<entropy = 0.0<br/>samples = 5<br/>value = [0, 5]>, fillcolor="#399de5ff"] ;
53 -> 57 ;
58 [label=<X<SUB>1</SUB> &le; 1.989<br/>entropy = 0.987<br/>samples = 30<br/>value = [17, 13]>, fillcolor="#e581393c"] ;
48 -> 58 ;
59 [label=<entropy = 0.0<br/>samples = 6<br/>value = [6, 0]>, fillcolor="#e58139ff"] ;
58 -> 59 ;
60 [label=<X<SUB>0</SUB> &le; 1.617<br/>entropy = 0.995<br/>samples = 24<br/>value = [11, 13]>, fillcolor="#399de527"] ;
58 -> 60 ;
61 [label=<X<SUB>1</SUB> &le; 2.167<br/>entropy = 0.863<br/>samples = 14<br/>value = [10, 4]>, fillcolor="#e5813999"] ;
60 -> 61 ;
62 [label=<entropy = 0.0<br/>samples = 2<br/>value = [0, 2]>, fillcolor="#399de5ff"] ;
61 -> 62 ;
63 [label=<X<SUB>1</SUB> &le; 2.491<br/>entropy = 0.65<br/>samples = 12<br/>value = [10, 2]>, fillcolor="#e58139cc"] ;
61 -> 63 ;
64 [label=<entropy = 0.0<br/>samples = 6<br/>value = [6, 0]>, fillcolor="#e58139ff"] ;
63 -> 64 ;
65 [label=<entropy = 0.918<br/>samples = 6<br/>value = [4, 2]>, fillcolor="#e581397f"] ;
63 -> 65 ;
66 [label=<X<SUB>1</SUB> &le; 2.187<br/>entropy = 0.469<br/>samples = 10<br/>value = [1, 9]>, fillcolor="#399de5e3"] ;
60 -> 66 ;
67 [label=<entropy = 0.0<br/>samples = 1<br/>value = [1, 0]>, fillcolor="#e58139ff"] ;
66 -> 67 ;
68 [label=<entropy = 0.0<br/>samples = 9<br/>value = [0, 9]>, fillcolor="#399de5ff"] ;
66 -> 68 ;
69 [label=<X<SUB>0</SUB> &le; 1.789<br/>entropy = 0.65<br/>samples = 30<br/>value = [25, 5]>, fillcolor="#e58139cc"] ;
47 -> 69 ;
70 [label=<X<SUB>0</SUB> &le; -1.233<br/>entropy = 0.391<br/>samples = 26<br/>value = [24, 2]>, fillcolor="#e58139ea"] ;
69 -> 70 ;
71 [label=<entropy = 0.0<br/>samples = 1<br/>value = [0, 1]>, fillcolor="#399de5ff"] ;
70 -> 71 ;
72 [label=<X<SUB>0</SUB> &le; 1.703<br/>entropy = 0.242<br/>samples = 25<br/>value = [24, 1]>, fillcolor="#e58139f4"] ;
70 -> 72 ;
73 [label=<entropy = 0.0<br/>samples = 21<br/>value = [21, 0]>, fillcolor="#e58139ff"] ;
72 -> 73 ;
74 [label=<X<SUB>0</SUB> &le; 1.723<br/>entropy = 0.811<br/>samples = 4<br/>value = [3, 1]>, fillcolor="#e58139aa"] ;
72 -> 74 ;
75 [label=<entropy = 0.0<br/>samples = 1<br/>value = [0, 1]>, fillcolor="#399de5ff"] ;
74 -> 75 ;
76 [label=<entropy = 0.0<br/>samples = 3<br/>value = [3, 0]>, fillcolor="#e58139ff"] ;
74 -> 76 ;
77 [label=<X<SUB>1</SUB> &le; 4.026<br/>entropy = 0.811<br/>samples = 4<br/>value = [1, 3]>, fillcolor="#399de5aa"] ;
69 -> 77 ;
78 [label=<entropy = 0.0<br/>samples = 3<br/>value = [0, 3]>, fillcolor="#399de5ff"] ;
77 -> 78 ;
79 [label=<entropy = 0.0<br/>samples = 1<br/>value = [1, 0]>, fillcolor="#e58139ff"] ;
77 -> 79 ;
80 [label=<X<SUB>0</SUB> &le; 3.988<br/>entropy = 0.372<br/>samples = 209<br/>value = [15, 194]>, fillcolor="#399de5eb"] ;
46 -> 80 ;
81 [label=<X<SUB>1</SUB> &le; 4.266<br/>entropy = 0.15<br/>samples = 185<br/>value = [4, 181]>, fillcolor="#399de5f9"] ;
80 -> 81 ;
82 [label=<X<SUB>1</SUB> &le; 1.843<br/>entropy = 0.088<br/>samples = 179<br/>value = [2, 177]>, fillcolor="#399de5fc"] ;
81 -> 82 ;
83 [label=<X<SUB>1</SUB> &le; 1.804<br/>entropy = 0.764<br/>samples = 9<br/>value = [2, 7]>, fillcolor="#399de5b6"] ;
82 -> 83 ;
84 [label=<entropy = 0.0<br/>samples = 7<br/>value = [0, 7]>, fillcolor="#399de5ff"] ;
83 -> 84 ;
85 [label=<entropy = 0.0<br/>samples = 2<br/>value = [2, 0]>, fillcolor="#e58139ff"] ;
83 -> 85 ;
86 [label=<entropy = 0.0<br/>samples = 170<br/>value = [0, 170]>, fillcolor="#399de5ff"] ;
82 -> 86 ;
87 [label=<X<SUB>1</SUB> &le; 4.287<br/>entropy = 0.918<br/>samples = 6<br/>value = [2, 4]>, fillcolor="#399de57f"] ;
81 -> 87 ;
88 [label=<X<SUB>1</SUB> &le; 4.276<br/>entropy = 0.918<br/>samples = 3<br/>value = [2, 1]>, fillcolor="#e581397f"] ;
87 -> 88 ;
89 [label=<entropy = 0.0<br/>samples = 1<br/>value = [1, 0]>, fillcolor="#e58139ff"] ;
88 -> 89 ;
90 [label=<X<SUB>1</SUB> &le; 4.286<br/>entropy = 1.0<br/>samples = 2<br/>value = [1, 1]>, fillcolor="#e5813900"] ;
88 -> 90 ;
91 [label=<entropy = 0.0<br/>samples = 1<br/>value = [0, 1]>, fillcolor="#399de5ff"] ;
90 -> 91 ;
92 [label=<entropy = 0.0<br/>samples = 1<br/>value = [1, 0]>, fillcolor="#e58139ff"] ;
90 -> 92 ;
93 [label=<entropy = 0.0<br/>samples = 3<br/>value = [0, 3]>, fillcolor="#399de5ff"] ;
87 -> 93 ;
94 [label=<X<SUB>1</SUB> &le; 3.621<br/>entropy = 0.995<br/>samples = 24<br/>value = [11, 13]>, fillcolor="#399de527"] ;
80 -> 94 ;
95 [label=<X<SUB>1</SUB> &le; 2.304<br/>entropy = 0.567<br/>samples = 15<br/>value = [2, 13]>, fillcolor="#399de5d8"] ;
94 -> 95 ;
96 [label=<X<SUB>0</SUB> &le; 4.07<br/>entropy = 0.918<br/>samples = 3<br/>value = [2, 1]>, fillcolor="#e581397f"] ;
95 -> 96 ;
97 [label=<entropy = 0.0<br/>samples = 1<br/>value = [1, 0]>, fillcolor="#e58139ff"] ;
96 -> 97 ;
98 [label=<X<SUB>0</SUB> &le; 4.161<br/>entropy = 1.0<br/>samples = 2<br/>value = [1, 1]>, fillcolor="#e5813900"] ;
96 -> 98 ;
99 [label=<entropy = 0.0<br/>samples = 1<br/>value = [0, 1]>, fillcolor="#399de5ff"] ;
98 -> 99 ;
100 [label=<entropy = 0.0<br/>samples = 1<br/>value = [1, 0]>, fillcolor="#e58139ff"] ;
98 -> 100 ;
101 [label=<entropy = 0.0<br/>samples = 12<br/>value = [0, 12]>, fillcolor="#399de5ff"] ;
95 -> 101 ;
102 [label=<entropy = 0.0<br/>samples = 9<br/>value = [9, 0]>, fillcolor="#e58139ff"] ;
94 -> 102 ;
103 [label=<entropy = 0.0<br/>samples = 45<br/>value = [45, 0]>, fillcolor="#e58139ff"] ;
1 -> 103 ;
104 [label=<entropy = 0.0<br/>samples = 61<br/>value = [61, 0]>, fillcolor="#e58139ff"] ;
0 -> 104 [labeldistance=2.5, labelangle=-45, headlabel="False"] ;
}