digraph Tree {
node [shape=box, style="filled, rounded", color="black", fontname=helvetica] ;
edge [fontname=helvetica] ;
0 [label=<X<SUB>0</SUB> &le; 4.317<br/>entropy = 1.0<br/>samples = 600<br/>value = [303, 297]>, fillcolor="#e5813905"] ;
1 [label=<X<SUB>1</SUB> &le; 4.363<br/>entropy = 0.992<br/>samples = 537<br/>value = [240, 297]>, fillcolor="#399de531"] ;
0 -> 1 [labeldistance=2.5, labelangle=45, headlabel="True"] ;
2 [label=<X<SUB>1</SUB> &le; 1.569<br/>entropy = 0.967<br/>samples = 488<br/>value = [192, 296]>, fillcolor="#399de55a"] ;
1 -> 2 ;
3 [label=<X<SUB>1</SUB> &le; -1.603<br/>entropy = 0.922<br/>samples = 202<br/>value = [134, 68]>, fillcolor="#e581397e"] ;
2 -> 3 ;
4 [label=<entropy = 0.0<br/>samples = 25<br/>value = [0, 25]>, fillcolor="#399de5ff"] ;
3 -> 4 ;
5 [label=<X<SUB>0</SUB> &le; -1.598<br/>entropy = 0.8<br/>samples = 177<br/>value = [134, 43]>, fillcolor="#e58139ad"] ;
3 -> 5 ;
6 [label=<entropy = 0.0<br/>samples = 10<br/>value = [0, 10]>, fillcolor="#399de5ff"] ;
5 -> 6 ;
7 [label=<X<SUB>0</SUB> &le; 0.905<br/>entropy = 0.717<br/>samples = 167<br/>value = [134, 33]>, fillcolor="#e58139c0"] ;
5 -> 7 ;
8 [label=<X<SUB>1</SUB> &le; -1.227<br/>entropy = 0.262<br/>samples = 90<br/>value = [86, 4]>, fillcolor="#e58139f3"] ;
7 -> 8 ;
9 [label=<X<SUB>0</SUB> &le; -0.739<br/>entropy = 0.811<br/>samples = 8<br/>value = [6, 2]>, fillcolor="#e58139aa"] ;
8 -> 9 ;
10 [label=<entropy = 0.0<br/>samples = 2<br/>value = [0, 2]>, fillcolor="#399de5ff"] ;
9 -> 10 ;
11 [label=<entropy = 0.0<br/>samples = 6<br/>value = [6, 0]>, fillcolor="#e58139ff"] ;
9 -> 11 ;
12 [label=<X<SUB>1</SUB> &le; 1.117<br/>entropy = 0.165<br/>samples = 82<br/>value = [80, 2]>, fillcolor="#e58139f9"] ;
8 -> 12 ;
13 [label=<entropy = 0.0<br/>samples = 70<br/>value = [70, 0]>, fillcolor="#e58139ff"] ;
12 -> 13 ;
14 [label=<X<SUB>0</SUB> &le; -1.18<br/>entropy = 0.65<br/>samples = 12<br/>value = [10, 2]>, fillcolor="#e58139cc"] ;
12 -> 14 ;
15 [label=<entropy = 0.0<br/>samples = 1<br/>value = [0, 1]>, fillcolor="#399de5ff"] ;
14 -> 15 ;
16 [label=<X<SUB>1</SUB> &le; 1.559<br/>entropy = 0.439<br/>samples = 11<br/>value = [10, 1]>, fillcolor="#e58139e6"] ;
14 -> 16 ;
17 [label=<entropy = 0.0<br/>samples = 9<br/>value = [9, 0]>, fillcolor="#e58139ff"] ;
16 -> 17 ;
18 [label=<entropy = 1.0<br/>samples = 2<br/>value = [1, 1]>, fillcolor="#e5813900"] ;
16 -> 18 ;
19 [label=<X<SUB>0</SUB> &le; 2.498<br/>entropy = 0.956<br/>samples = 77<br/>value = [48, 29]>, fillcolor="#e5813965"] ;
7 -> 19 ;
20 [label=<X<SUB>0</SUB> &le; 1.412<br/>entropy = 0.961<br/>samples = 39<br/>value = [15, 24]>, fillcolor="#399de560"] ;
19 -> 20 ;
21 [label=<X<SUB>1</SUB> &le; 0.981<br/>entropy = 0.89<br/>samples = 13<br/>value = [9, 4]>, fillcolor="#e581398e"] ;
20 -> 21 ;
22 [label=<X<SUB>1</SUB> &le; -1.21<br/>entropy = 0.469<br/>samples = 10<br/>value = [9, 1]>, fillcolor="#e58139e3"] ;
21 -> 22 ;
23 [label=<entropy = 0.0<br/>samples = 1<br/>value = [0, 1]>, fillcolor="#399de5ff"] ;
22 -> 23 ;
24 [label=<entropy = 0.0<br/>samples = 9<br/>value = [9, 0]>, fillcolor="#e58139ff"] ;
22 -> 24 ;
25 [label=<entropy = 0.0<br/>samples = 3<br/>value = [0, 3]>, fillcolor="#399de5ff"] ;
21 -> 25 ;
26 [label=<X<SUB>1</SUB> &le; 1.424<br/>entropy = 0.779<br/>samples = 26<br/>value = [6, 20]>, fillcolor="#399de5b3"] ;
20 -> 26 ;
27 [label=<X<SUB>0</SUB> &le; 1.733<br/>entropy = 0.65<br/>samples = 24<br/>value = [4, 20]>, fillcolor="#399de5cc"] ;
26 -> 27 ;
28 [label=<entropy = 0.0<br/>samples = 8<br/>value = [0, 8]>, fillcolor="#399de5ff"] ;
27 -> 28 ;
29 [label=<entropy = 0.811<br/>samples = 16<br/>value = [4, 12]>, fillcolor="#399de5aa"] ;
27 -> 29 ;
30 [label=<entropy = 0.0<br/>samples = 2<br/>value = [2, 0]>, fillcolor="#e58139ff"] ;
26 -> 30 ;
31 [label=<X<SUB>1</SUB> &le; 1.168<br/>entropy = 0.562<br/>samples = 38<br/>value = [33, 5]>, fillcolor="#e58139d8"] ;
19 -> 31 ;
32 [label=<X<SUB>1</SUB> &le; -0.765<br/>entropy = 0.755<br/>samples = 23<br/>value = [18, 5]>, fillcolor="#e58139b8"] ;
31 -> 32 ;
33 [label=<entropy = 0.0<br/>samples = 1<br/>value = [0, 1]>, fillcolor="#399de5ff"] ;
32 -> 33 ;
34 [label=<X<SUB>1</SUB> &le; 1.162<br/>entropy = 0.684<br/>samples = 22<br/>value = [18, 4]>, fillcolor="#e58139c6"] ;
32 -> 34 ;
35 [label=<entropy = 0.592<br/>samples = 21<br/>value = [18, 3]>, fillcolor="#e58139d4"] ;
34 -> 35 ;
36 [label=<entropy = 0.0<br/>samples = 1<br/>value = [0, 1]>, fillcolor="#399de5ff"] ;
34 -> 36 ;
37 [label=<entropy = 0.0<br/>samples = 15<br/>value = [15, 0]>, fillcolor="#e58139ff"] ;
31 -> 37 ;
38 [label=<X<SUB>0</SUB> &le; 1.985<br/>entropy = 0.727<br/>samples = 286<br/>value = [58, 228]>, fillcolor="#399de5be"] ;
2 -> 38 ;
39 [label=<X<SUB>1</SUB> &le; 3.467<br/>entropy = 0.998<br/>samples = 91<br/>value = [43, 48]>, fillcolor="#399de51b"] ;
38 -> 39 ;
40 [label=<X<SUB>0</SUB> &le; 0.062<br/>entropy = 0.923<br/>samples = 71<br/>value = [24, 47]>, fillcolor="#399de57d"] ;
39 -> 40 ;
41 [label=<entropy = 0.0<br/>samples = 18<br/>value = [0, 18]>, fillcolor="#399de5ff"] ;
40 -> 41 ;
42 [label=<X<SUB>0</SUB> &le; 1.632<br/>entropy = 0.994<br/>samples = 53<br/>value = [24, 29]>, fillcolor="#399de52c"] ;
40 -> 42 ;
43 [label=<X<SUB>1</SUB> &le; 3.097<br/>entropy = 0.954<br/>samples = 32<br/>value = [20, 12]>, fillcolor="#e5813966"] ;
42 -> 43 ;
44 [label=<X<SUB>0</SUB> &le; 0.322<br/>entropy = 0.999<br/>samples = 25<br/>value = [13, 12]>, fillcolor="#e5813914"] ;
43 -> 44 ;
45 [label=<entropy = 0.0<br/>samples = 3<br/>value = [0, 3]>, fillcolor="#399de5ff"] ;
44 -> 45 ;
46 [label=<X<SUB>1</SUB> &le; 2.541<br/>entropy = 0.976<br/>samples = 22<br/>value = [13, 9]>, fillcolor="#e581394e"] ;
44 -> 46 ;
47 [label=<entropy = 0.996<br/>samples = 13<br/>value = [6, 7]>, fillcolor="#399de524"] ;
46 -> 47 ;
48 [label=<entropy = 0.764<br/>samples = 9<br/>value = [7, 2]>, fillcolor="#e58139b6"] ;
46 -> 48 ;
49 [label=<entropy = 0.0<br/>samples = 7<br/>value = [7, 0]>, fillcolor="#e58139ff"] ;
43 -> 49 ;
50 [label=<X<SUB>1</SUB> &le; 2.223<br/>entropy = 0.702<br/>samples = 21<br/>value = [4, 17]>, fillcolor="#399de5c3"] ;
42 -> 50 ;
51 [label=<X<SUB>1</SUB> &le; 1.665<br/>entropy = 0.722<br/>samples = 5<br/>value = [4, 1]>, fillcolor="#e58139bf"] ;
50 -> 51 ;
52 [label=<entropy = 0.0<br/>samples = 1<br/>value = [0, 1]>, fillcolor="#399de5ff"] ;
51 -> 52 ;
53 [label=<entropy = 0.0<br/>samples = 4<br/>value = [4, 0]>, fillcolor="#e58139ff"] ;
51 -> 53 ;
54 [label=<entropy = 0.0<br/>samples = 16<br/>value = [0, 16]>, fillcolor="#399de5ff"] ;
50 -> 54 ;
55 [label=<X<SUB>0</SUB> &le; 1.789<br/>entropy = 0.286<br/>samples = 20<br/>value = [19, 1]>, fillcolor="#e58139f2"] ;
39 -> 55 ;
56 [label=<entropy = 0.0<br/>samples = 18<br/>value = [18, 0]>, fillcolor="#e58139ff"] ;
55 -> 56 ;
57 [label=<X<SUB>0</SUB> &le; 1.894<br/>entropy = 1.0<br/>samples = 2<br/>value = [1, 1]>, fillcolor="#e5813900"] ;
55 -> 57 ;
58 [label=<entropy = 0.0<br/>samples = 1<br/>value = [0, 1]>, fillcolor="#399de5ff"] ;
57 -> 58 ;
59 [label=<entropy = 0.0<br/>samples = 1<br/>value = [1, 0]>, fillcolor="#e58139ff"] ;
57 -> 59 ;
60 [label=<X<SUB>0</SUB> &le; 3.549<br/>entropy = 0.391<br/>samples = 195<br/>value = [15, 180]>, fillcolor="#399de5ea"] ;
38 -> 60 ;
61 [label=<X<SUB>1</SUB> &le; 1.728<br/>entropy = 0.105<br/>samples = 145<br/>value = [2, 143]>, fillcolor="#399de5fb"] ;
60 -> 61 ;
62 [label=<X<SUB>1</SUB> &le; 1.656<br/>entropy = 1.0<br/>samples = 4<br/>value = [2, 2]>, fillcolor="#e5813900"] ;
61 -> 62 ;
63 [label=<entropy = 0.0<br/>samples = 2<br/>value = [0, 2]>, fillcolor="#399de5ff"] ;
62 -> 63 ;
64 [label=<entropy = 0.0<br/>samples = 2<br/>value = [2, 0]>, fillcolor="#e58139ff"] ;
62 -> 64 ;
65 [label=<entropy = 0.0<br/>samples = 141<br/>value = [0, 141]>, fillcolor="#399de5ff"] ;
61 -> 65 ;
66 [label=<X<SUB>1</SUB> &le; 3.874<br/>entropy = 0.827<br/>samples = 50<br/>value = [13, 37]>, fillcolor="#399de5a5"] ;
60 -> 66 ;
67 [label=<X<SUB>1</SUB> &le; 1.871<br/>entropy = 0.292<br/>samples = 39<br/>value = [2, 37]>, fillcolor="#399de5f1"] ;
66 -> 67 ;
68 [label=<entropy = 0.0<br/>samples = 1<br/>value = [1, 0]>, fillcolor="#e58139ff"] ;
67 -> 68 ;
69 [label=<X<SUB>1</SUB> &le; 3.643<br/>entropy = 0.176<br/>samples = 38<br/>value = [1, 37]>, fillcolor="#399de5f8"] ;
67 -> 69 ;
70 [label=<entropy = 0.0<br/>samples = 36<br/>value = [0, 36]>, fillcolor="#399de5ff"] ;
69 -> 70 ;
71 [label=<X<SUB>0</SUB> &le; 4.103<br/>entropy = 1.0<br/>samples = 2<br/>value = [1, 1]>, fillcolor="#e5813900"] ;
69 -> 71 ;
72 [label=<entropy = 0.0<br/>samples = 1<br/>value = [0, 1]>, fillcolor="#399de5ff"] ;
71 -> 72 ;
73 [label=<entropy = 0.0<br/>samples = 1<br/>value = [1, 0]>, fillcolor="#e58139ff"] ;
71 -> 73 ;
74 [label=<entropy = 0.0<br/>samples = 11<br/>value = [11, 0]>, fillcolor="#e58139ff"] ;
66 -> 74 ;
75 [label=<X<SUB>0</SUB> &le; -1.368<br/>entropy = 0.144<br/>samples = 49<br/>value = [48, 1]>, fillcolor="#e58139fa"] ;
1 -> 75 ;
76 [label=<entropy = 0.0<br/>samples = 1<br/>value = [0, 1]>, fillcolor="#399de5ff"] ;
75 -> 76 ;
77 [label=<entropy = 0.0<br/>samples = 48<br/>value = [48, 0]>, fillcolor="#e58139ff"] ;
75 -> 77 ;
78 [label=<entropy = 0.0<br/>samples = 63<br/>value = [63, 0]>, fillcolor="#e58139ff"] ;
0 -> 78 [labeldistance=2.5, labelangle=-45, headlabel="False"] ;
}