digraph Tree {
node [shape=box, style="filled, rounded", color="black", fontname=helvetica] ;
edge [fontname=helvetica] ;
0 [label=<petal length (cm) &le; 2.45<br/>entropy = 1.585<br/>samples = 150<br/>value = [50, 50, 50]<br/>class = setosa>, fillcolor="#e5813900"] ;
1 [label=<entropy = 0.0<br/>samples = 50<br/>value = [50, 0, 0]<br/>class = setosa>, fillcolor="#e58139ff"] ;
0 -> 1 [labeldistance=2.5, labelangle=45, headlabel="True"] ;
2 [label=<petal width (cm) &le; 1.75<br/>entropy = 1.0<br/>samples = 100<br/>value = [0, 50, 50]<br/>class = versicolor>, fillcolor="#39e58100"] ;
0 -> 2 [labeldistance=2.5, labelangle=-45, headlabel="False"] ;
3 [label=<entropy = 0.445<br/>samples = 54<br/>value = [0, 49, 5]<br/>class = versicolor>, fillcolor="#39e581e5"] ;
2 -> 3 ;
4 [label=<entropy = 0.151<br/>samples = 46<br/>value = [0, 1, 45]<br/>class = virginica>, fillcolor="#8139e5f9"] ;
2 -> 4 ;
}